svm_type c_svc
kernel_type rbf
gamma 0.03125
nr_class 2
total_sv 73
rho 11.8745
label 1 -1
nr_sv 36 37
SV
32768 1:0.1044 2:0.220569 3:0 4:0 5:0.195548 6:0.011869 7:0.325647 
32768 1:0.139125 2:0.129776 3:0 4:0.071365 5:0.564752 6:0.105899 7:0.458862 
32768 1:0.278722 2:0.811092 3:0 4:0.057285 5:0.205658 6:0.05376 7:0.643709 
32768 1:0.069466 2:0.328641 3:0.076465 4:0.318606 5:0.773016 6:0.187246 7:0.456376 
32768 1:0.170416 2:0.347963 3:0 4:0 5:0.568477 6:0.004715 7:0.354344 
6045.448623124662 1:0.022812 2:0.159064 3:0.196728 4:0 5:0.611354 6:0.051619 7:0.631827 
24031.57040723985 1:0.01977 2:0.228725 3:0.171103 4:0.633065 5:0.648788 6:0.225381 7:0.727206 
32768 1:0.049923 2:0.262037 3:0.147692 4:0.389069 5:0.42202 6:0.103485 7:0.607989 
17691.02025687948 1:0.053274 2:0.136778 3:0.099062 4:0.679057 5:0.405992 6:0.132302 7:0.510027 
3112.692785610783 1:0 2:0.5544 3:0.749076 4:0.285421 5:0.527918 6:0.032058 7:0.76775 
2773.194151089015 1:0.045043 2:0.797377 3:0.349091 4:0.057765 5:0.552226 6:0.022936 7:0.191544 
1764.930831324499 1:0.751839 2:1 3:0.531692 4:0.621538 5:0.274039 6:0.00727 7:0.371958 
32768 1:0.467134 2:0.208278 3:0.800618 4:0 5:0.700887 6:0.034334 7:0.784935 
32768 1:0.01908 2:0.39606 3:0.015098 4:0.008519 5:0.273704 6:0.048859 7:0.317742 
32768 1:0 2:0.39983 3:0.147422 4:0.239488 5:0.279213 6:0.026732 7:0.548453 
7697.732775595186 1:0.061322 2:0.424235 3:0.169014 4:0.359155 5:0.418163 6:0.061331 7:0.553827 
32768 1:0.008881 2:0.256278 3:0.105234 4:0.545903 5:0.289761 6:0.052356 7:0.495567 
7615.007965952143 1:0.043743 2:0.920338 3:0.244101 4:0.676008 5:0.992634 6:0.348385 7:0.53106 
32768 1:0.037804 2:0.502891 3:0.272893 4:0.292386 5:0.480571 6:0.115493 7:0.52293 
32768 1:0.225829 2:0.58258 3:0.270604 4:0 5:0.346229 6:0.014238 7:0.628991 
32768 1:0 2:0.6166 3:0.33 4:0 5:0.980583 6:0.178693 7:0.598591 
32768 1:0.331293 2:0.439417 3:0.561581 4:0.466403 5:0.442625 6:0.110674 7:0.268852 
32768 1:0 2:0.615811 3:0.850411 4:0.26484 5:0.545595 6:0.047803 7:0.796857 
32768 1:0.061891 2:0.639519 3:0.613369 4:0.562416 5:0.158479 6:0.003399 7:0.578355 
6426.123284918144 1:0.122411 2:1 3:0 4:0.42069 5:0.943707 6:0.045773 7:0.962353 
32768 1:0.149825 2:1 3:0.466464 4:0.26898 5:0.803832 6:0.257563 7:0.686147 
6761.262654259028 1:0.185055 2:1 3:0.603048 4:0.547344 5:0.907839 6:0.238647 7:0.739573 
32768 1:0.14592 2:0.111512 3:0.103209 4:0 5:0.660285 6:0.006344 7:0.231772 
32768 1:0.19262 2:0.169203 3:0 4:0.473904 5:0.772737 6:0.082087 7:0.862098 
32768 1:0.043628 2:0.341711 3:0.107361 4:0.40023 5:0.640558 6:0.123353 7:0.226604 
16715.09577380568 1:0.025824 2:0.528823 3:0.055689 4:0.833821 5:0.618832 6:0.594411 7:0.100518 
32768 1:0.051404 2:0.278648 3:0.205049 4:0.671983 5:0.12881 6:0.012315 7:0.35909 
26259.53625692279 1:0.103717 2:0.117077 3:0.067203 4:0.774939 5:0.320389 6:0.007007 7:0.128334 
32768 1:0.108407 2:0.264832 3:0.08082 4:-0 5:0.280775 6:0.061845 7:0.215138 
32768 1:0.143635 2:0.1355 3:0.608825 4:0.565425 5:0.170978 6:0.003207 7:0.496987 
32768 1:0 2:0.487015 3:0.587294 4:0.614706 5:0.322249 6:0.092603 7:0.672243 
-9260.895380782806 1:0.410231 2:0.066245 3:0 4:-0 5:0.847986 6:0.029779 7:0.289991 
-120.8646151049571 1:0.202627 2:0.306893 3:0 4:0 5:0.952558 6:0.052451 7:0.129778 
-29114.43643392306 1:0.010218 2:0.306929 3:0.020816 4:0.724008 5:0.164653 6:0.2422 7:0.458433 
-32768 1:0.077617 2:0.113971 3:0.028603 4:0.190689 5:0.387972 6:0.019513 7:0.437282 
-32768 1:0.070757 2:0.686674 3:0.122362 4:0.319588 5:0.788276 6:0.229967 7:0.45896 
-23606.58823362118 1:0.302309 2:0.133008 3:0.393126 4:0.330896 5:0.431316 6:0.00391 7:0.260566 
-10888.95239117819 1:0.08587 2:0.034041 3:0.079277 4:0.947097 5:0.041186 6:0.001084 7:0.134755 
-21043.36825748869 1:0.059032 2:0.164379 3:0.064879 4:0 5:0.293211 6:0.004322 7:0.126053 
-15851.08421302636 1:0.518489 2:0.461914 3:0.364138 4:-0 5:0.3773 6:0.013662 7:0.568977 
-32768 1:0.080019 2:0.034494 3:0.192877 4:0.52719 5:0.229065 6:0.006993 7:0.277004 
-26094.9671405983 1:0.161316 2:0.149152 3:0.429317 4:0.417924 5:0.345348 6:0.024114 7:0.203497 
-15410.03816927304 1:0.252873 2:0.309822 3:0.598588 4:0 5:0.38798 6:0.035613 7:0.369942 
-21353.43468503929 1:0.073716 2:0.639208 3:0.29774 4:0.201152 5:0.807994 6:0.369886 7:0.296503 
-5006.033758358297 1:0.117126 2:0.416555 3:0 4:0 5:0.190255 6:0.003408 7:0.829381 
-32768 1:0.036142 2:0.480035 3:0.095835 4:0.290017 5:0.021429 6:0.001243 7:0.556208 
-32768 1:0.061643 2:0.489385 3:0.096499 4:-0 5:0.067917 6:0.002495 7:0.561202 
-32768 1:0.265432 2:0.580645 3:0.061604 4:0.240642 5:0.546035 6:0.087839 7:0.55148 
-32768 1:0.140032 2:0.067899 3:0.090271 4:0 5:0.620245 6:0.062767 7:0.527391 
-29447.92453880744 1:0.100542 2:0.327863 3:0 4:0 5:0.677644 6:0.210452 7:0.583192 
-6981.236754984544 1:0.435565 2:0.669505 3:0.539759 4:0.319277 5:0.329938 6:0.025893 7:0.880101 
-32768 1:0 2:0.522931 3:0.507586 4:0.166667 5:0.607077 6:0.060112 7:0.678262 
-32768 1:0.099497 2:0.453012 3:0.548178 4:0.512195 5:0.294544 6:0.096975 7:0.671275 
-32768 1:0.260391 2:0.823401 3:0.636343 4:0.374286 5:0.752433 6:0.070032 7:0.725311 
-26680.90667997402 1:0.134283 2:0.238257 3:0.642857 4:0 5:0.533313 6:0.033896 7:0.85267 
-32768 1:0.050518 2:0.17189 3:0.056471 4:0.574074 5:0.864691 6:0.179819 7:0.529412 
-32768 1:0 2:0.671907 3:0.027953 4:0.612375 5:0.893608 6:0.221348 7:0.504412 
-32768 1:0.077271 2:0.321828 3:0.104321 4:0.058215 5:0.768817 6:0.105173 7:0.534008 
-5483.287938510438 1:0.004716 2:0.616503 3:0 4:0.205864 5:0.622701 6:0.381317 7:0.472731 
-32768 1:0.054403 2:0.320225 3:0.186122 4:0.734694 5:0.265426 6:0.032913 7:0.531795 
-32768 1:0.041381 2:0.111419 3:0.160611 4:0.714162 5:0.259805 6:0.124929 7:0.345289 
-32768 1:0.153545 2:0.462485 3:0.341918 4:0.246575 5:0.443984 6:0.015589 7:0.300654 
-12594.32724241194 1:0.153231 2:0.554851 3:0.376128 4:0.250569 5:0.19258 6:0.003801 7:0.280816 
-32768 1:0 2:0.607993 3:0.231946 4:0.234899 5:0.362048 6:0.076885 7:0.11677 
-24095.0775088867 1:0.160405 2:0.315502 3:0.164881 4:0.19661 5:0.650583 6:0.076906 7:0.973865 
-32768 1:0.102471 2:0.657033 3:0.007821 4:0 5:0.50765 6:0.007709 7:0.44134 
-25689.60720877503 1:0.030931 2:0.938417 3:1.089362 4:0.622931 5:0.466174 6:0.116394 7:0.926598 
-14778.58461597706 1:0.064113 2:0.218076 3:0.859735 4:0.698788 5:0.601817 6:0.232722 7:0.910496 
