svm_type one_class
kernel_type rbf
gamma 0.4
nr_class 2
total_sv 23
rho 0.0622247
SV
0.01450976176008384 1:1.3262356 2:2.2459054 3:1.7272757 4:-1.048836 5:0.92598958 6:-0.18203965 
0.04820279550101206 1:1.8033839 2:5.813115 3:5.0846307 4:0.58757937 5:5.5743794 6:0.78981294 
0.04856238186890775 1:1.0743322 2:5.3954686 3:3.7180925 4:0.85562451 5:5.0016659 6:1.3372575 
0.05697485868196733 1:2.1296787 2:3.4028118 3:3.24132 4:1.597174 5:2.0103549 6:0.48138351 
0.01462632223069475 1:0.073018475 2:0.47993035 3:0.086966258 4:-0.42363438 5:-0.019647916 6:-0.3101364 
0.06222482385606457 1:4.1806101 2:9.2780626 3:12.544336 4:-5.2843747 5:13.574644 6:-1.7739607 
0.01926131218005535 1:2.391928 2:0.58368152 3:0.69109251 4:0.35697493 5:-0.01282319 6:0.089285561 
0.01107733491510225 1:1.5831807 2:-0.45871878 3:-0.35559654 4:0.13368774 5:-0.18640584 6:0.053451451 
0.0284766355530998 1:0.90498561 2:2.3984497 3:1.5388542 4:0.29409266 5:1.104116 6:0.94645228 
0.02903453638649804 1:1.1729611 2:0.57775846 3:0.3465492 4:-1.03333 5:-9.2011831e-05 6:-0.20909982 
0.004005480808880402 1:0.40070064 2:1.0822297 3:0.48432538 4:0.67794619 5:0.24120806 6:0.32054692 
0.06222490746505073 1:4.0072024 2:6.5695821 3:6.5838264 4:-17.036323 5:8.1355953 6:-18.255445 
0.01087033374330924 1:0.7912137 2:2.1159956 3:1.3359292 4:-0.62649249 5:0.8878279 6:-0.16000259 
0.05362232224867925 1:-1.737481 2:-0.49288894 3:-0.3705802 4:0.056662605 5:-0.18664496 6:0.051059699 
0.01819164409580547 1:0.20021034 2:-0.49209575 3:-0.37098618 4:0.057399604 5:-0.18664499 6:0.051061049 
0.02006955899739106 1:1.3828495 2:2.8858943 3:2.2578509 4:-0.60309796 5:1.47092 6:-0.39295059 
0.005312346548551461 1:-0.085696477 2:-0.27872191 3:-0.33261018 4:0.33834285 5:-0.17589581 6:0.16632068 
0.048473960038468 1:0.83312467 2:1.3592617 3:0.65524012 4:1.968159 5:0.38301326 6:0.87323915 
0.01371847725734379 1:1.8571459 2:1.6736744 3:1.5257625 4:0.76837159 5:0.50855542 6:0.21784296 
0.06085313038205427 1:2.1621805 2:4.6922476 3:4.4869548 4:-1.4147704 5:3.6816775 6:-0.30251904 
0.002896633204180255 1:1.6436508 2:1.1239144 3:0.96783785 4:-0.71355786 5:0.20398366 6:0.0059969993 
0.02438834649972631 1:2.1249866 2:2.6541344 3:2.5591761 4:-0.3611695 5:1.2343752 6:-0.093809587 
0.02842209577707407 1:2.1808006 2:-0.13252292 3:-0.088772298 4:0.66750668 5:-0.16365801 6:0.10791369 
